<?xml version="1.0" encoding="UTF-8" standalone="yes"?>
<PMML xmlns="http://www.dmg.org/PMML-4_4" xmlns:data="http://jpmml.org/jpmml-model/InlineTable" version="4.4">
	<Header>
		<Application name="SkLearn2PMML package" version="0.123.1"/>
		<Timestamp>2025-11-27T13:15:37Z</Timestamp>
	</Header>
	<DataDictionary>
		<DataField name="target" optype="categorical" dataType="integer">
			<Value value="0"/>
			<Value value="1"/>
		</DataField>
		<DataField name="amount" optype="continuous" dataType="float"/>
		<DataField name="monthly_os_changes" optype="continuous" dataType="float"/>
		<DataField name="monthly_phone_model_changes" optype="continuous" dataType="float"/>
		<DataField name="logins_last_7_days" optype="continuous" dataType="float"/>
		<DataField name="logins_last_30_days" optype="continuous" dataType="float"/>
		<DataField name="login_frequency_7d" optype="continuous" dataType="float"/>
		<DataField name="freq_change_7d_vs_mean" optype="continuous" dataType="float"/>
		<DataField name="logins_7d_over_30d_ratio" optype="continuous" dataType="float"/>
		<DataField name="avg_login_interval_30d" optype="continuous" dataType="float"/>
		<DataField name="std_login_interval_30d" optype="continuous" dataType="float"/>
		<DataField name="var_login_interval_30d" optype="continuous" dataType="float"/>
		<DataField name="ewm_login_interval_7d" optype="continuous" dataType="float"/>
		<DataField name="burstiness_login_interval" optype="continuous" dataType="float"/>
		<DataField name="fano_factor_login_interval" optype="continuous" dataType="float"/>
		<DataField name="zscore_avg_login_interval_7d" optype="continuous" dataType="float"/>
		<DataField name="hour" optype="continuous" dataType="float"/>
		<DataField name="HONOR" optype="continuous" dataType="float"/>
		<DataField name="Honor" optype="continuous" dataType="float"/>
		<DataField name="Huawei" optype="continuous" dataType="float"/>
		<DataField name="Motorola" optype="continuous" dataType="float"/>
		<DataField name="OPPO" optype="continuous" dataType="float"/>
		<DataField name="Oppo" optype="continuous" dataType="float"/>
		<DataField name="Realme" optype="continuous" dataType="float"/>
		<DataField name="Samsung" optype="continuous" dataType="float"/>
		<DataField name="TECNO" optype="continuous" dataType="float"/>
		<DataField name="Vivo" optype="continuous" dataType="float"/>
		<DataField name="Xiaomi" optype="continuous" dataType="float"/>
		<DataField name="iPhone" optype="continuous" dataType="float"/>
		<DataField name="iOS" optype="continuous" dataType="float"/>
		<DataField name="year" optype="continuous" dataType="float"/>
		<DataField name="month" optype="continuous" dataType="float"/>
		<DataField name="day" optype="continuous" dataType="float"/>
		<DataField name="dayofweek" optype="continuous" dataType="float"/>
		<DataField name="timestamp_unix" optype="continuous" dataType="float"/>
	</DataDictionary>
	<MiningModel functionName="classification" algorithmName="sklearn.ensemble._forest.RandomForestClassifier">
		<MiningSchema>
			<MiningField name="target" usageType="target"/>
			<MiningField name="Oppo"/>
			<MiningField name="amount"/>
			<MiningField name="burstiness_login_interval"/>
			<MiningField name="std_login_interval_30d"/>
			<MiningField name="day"/>
			<MiningField name="avg_login_interval_30d"/>
			<MiningField name="Vivo"/>
			<MiningField name="logins_last_30_days"/>
			<MiningField name="hour"/>
			<MiningField name="iOS"/>
			<MiningField name="ewm_login_interval_7d"/>
			<MiningField name="logins_7d_over_30d_ratio"/>
			<MiningField name="var_login_interval_30d"/>
			<MiningField name="month"/>
			<MiningField name="zscore_avg_login_interval_7d"/>
			<MiningField name="timestamp_unix"/>
			<MiningField name="login_frequency_7d"/>
			<MiningField name="logins_last_7_days"/>
			<MiningField name="freq_change_7d_vs_mean"/>
			<MiningField name="monthly_phone_model_changes"/>
			<MiningField name="dayofweek"/>
			<MiningField name="TECNO"/>
			<MiningField name="fano_factor_login_interval"/>
			<MiningField name="monthly_os_changes"/>
			<MiningField name="OPPO"/>
			<MiningField name="Samsung"/>
			<MiningField name="iPhone"/>
			<MiningField name="year"/>
			<MiningField name="Honor"/>
			<MiningField name="Xiaomi"/>
			<MiningField name="Realme"/>
			<MiningField name="Huawei"/>
			<MiningField name="HONOR"/>
			<MiningField name="Motorola"/>
		</MiningSchema>
		<Output>
			<OutputField name="probability(0)" optype="continuous" dataType="double" feature="probability" value="0"/>
			<OutputField name="probability(1)" optype="continuous" dataType="double" feature="probability" value="1"/>
		</Output>
		<LocalTransformations>
			<DerivedField name="double(amount)" optype="continuous" dataType="double">
				<FieldRef field="amount"/>
			</DerivedField>
			<DerivedField name="double(burstiness_login_interval)" optype="continuous" dataType="double">
				<FieldRef field="burstiness_login_interval"/>
			</DerivedField>
			<DerivedField name="double(std_login_interval_30d)" optype="continuous" dataType="double">
				<FieldRef field="std_login_interval_30d"/>
			</DerivedField>
			<DerivedField name="double(day)" optype="continuous" dataType="double">
				<FieldRef field="day"/>
			</DerivedField>
			<DerivedField name="double(avg_login_interval_30d)" optype="continuous" dataType="double">
				<FieldRef field="avg_login_interval_30d"/>
			</DerivedField>
			<DerivedField name="double(Vivo)" optype="continuous" dataType="double">
				<FieldRef field="Vivo"/>
			</DerivedField>
			<DerivedField name="double(logins_last_30_days)" optype="continuous" dataType="double">
				<FieldRef field="logins_last_30_days"/>
			</DerivedField>
			<DerivedField name="double(hour)" optype="continuous" dataType="double">
				<FieldRef field="hour"/>
			</DerivedField>
			<DerivedField name="double(iOS)" optype="continuous" dataType="double">
				<FieldRef field="iOS"/>
			</DerivedField>
			<DerivedField name="double(ewm_login_interval_7d)" optype="continuous" dataType="double">
				<FieldRef field="ewm_login_interval_7d"/>
			</DerivedField>
			<DerivedField name="double(logins_7d_over_30d_ratio)" optype="continuous" dataType="double">
				<FieldRef field="logins_7d_over_30d_ratio"/>
			</DerivedField>
			<DerivedField name="double(var_login_interval_30d)" optype="continuous" dataType="double">
				<FieldRef field="var_login_interval_30d"/>
			</DerivedField>
			<DerivedField name="double(month)" optype="continuous" dataType="double">
				<FieldRef field="month"/>
			</DerivedField>
			<DerivedField name="double(zscore_avg_login_interval_7d)" optype="continuous" dataType="double">
				<FieldRef field="zscore_avg_login_interval_7d"/>
			</DerivedField>
			<DerivedField name="double(timestamp_unix)" optype="continuous" dataType="double">
				<FieldRef field="timestamp_unix"/>
			</DerivedField>
			<DerivedField name="double(login_frequency_7d)" optype="continuous" dataType="double">
				<FieldRef field="login_frequency_7d"/>
			</DerivedField>
			<DerivedField name="double(logins_last_7_days)" optype="continuous" dataType="double">
				<FieldRef field="logins_last_7_days"/>
			</DerivedField>
			<DerivedField name="double(freq_change_7d_vs_mean)" optype="continuous" dataType="double">
				<FieldRef field="freq_change_7d_vs_mean"/>
			</DerivedField>
			<DerivedField name="double(monthly_phone_model_changes)" optype="continuous" dataType="double">
				<FieldRef field="monthly_phone_model_changes"/>
			</DerivedField>
			<DerivedField name="double(dayofweek)" optype="continuous" dataType="double">
				<FieldRef field="dayofweek"/>
			</DerivedField>
			<DerivedField name="double(TECNO)" optype="continuous" dataType="double">
				<FieldRef field="TECNO"/>
			</DerivedField>
			<DerivedField name="double(fano_factor_login_interval)" optype="continuous" dataType="double">
				<FieldRef field="fano_factor_login_interval"/>
			</DerivedField>
			<DerivedField name="double(monthly_os_changes)" optype="continuous" dataType="double">
				<FieldRef field="monthly_os_changes"/>
			</DerivedField>
			<DerivedField name="double(OPPO)" optype="continuous" dataType="double">
				<FieldRef field="OPPO"/>
			</DerivedField>
			<DerivedField name="double(Samsung)" optype="continuous" dataType="double">
				<FieldRef field="Samsung"/>
			</DerivedField>
			<DerivedField name="double(iPhone)" optype="continuous" dataType="double">
				<FieldRef field="iPhone"/>
			</DerivedField>
			<DerivedField name="double(year)" optype="continuous" dataType="double">
				<FieldRef field="year"/>
			</DerivedField>
			<DerivedField name="double(Honor)" optype="continuous" dataType="double">
				<FieldRef field="Honor"/>
			</DerivedField>
			<DerivedField name="double(Xiaomi)" optype="continuous" dataType="double">
				<FieldRef field="Xiaomi"/>
			</DerivedField>
			<DerivedField name="double(Realme)" optype="continuous" dataType="double">
				<FieldRef field="Realme"/>
			</DerivedField>
			<DerivedField name="double(Huawei)" optype="continuous" dataType="double">
				<FieldRef field="Huawei"/>
			</DerivedField>
			<DerivedField name="double(HONOR)" optype="continuous" dataType="double">
				<FieldRef field="HONOR"/>
			</DerivedField>
			<DerivedField name="double(Motorola)" optype="continuous" dataType="double">
				<FieldRef field="Motorola"/>
			</DerivedField>
		</LocalTransformations>
		<Segmentation multipleModelMethod="average" missingPredictionTreatment="returnMissing">
			<Segment id="1">
				<True/>
				<TreeModel functionName="classification" missingValueStrategy="nullPrediction">
					<MiningSchema>
						<MiningField name="double(amount)"/>
						<MiningField name="double(burstiness_login_interval)"/>
						<MiningField name="double(std_login_interval_30d)"/>
						<MiningField name="double(day)"/>
						<MiningField name="double(avg_login_interval_30d)"/>
						<MiningField name="double(Vivo)"/>
						<MiningField name="double(logins_last_30_days)"/>
						<MiningField name="double(hour)"/>
						<MiningField name="double(iOS)"/>
						<MiningField name="double(ewm_login_interval_7d)"/>
						<MiningField name="double(logins_7d_over_30d_ratio)"/>
						<MiningField name="double(var_login_interval_30d)"/>
						<MiningField name="double(month)"/>
						<MiningField name="double(zscore_avg_login_interval_7d)"/>
						<MiningField name="double(timestamp_unix)"/>
						<MiningField name="double(login_frequency_7d)"/>
						<MiningField name="double(logins_last_7_days)"/>
						<MiningField name="double(freq_change_7d_vs_mean)"/>
						<MiningField name="double(monthly_phone_model_changes)"/>
						<MiningField name="double(dayofweek)"/>
						<MiningField name="double(TECNO)"/>
						<MiningField name="double(fano_factor_login_interval)"/>
						<MiningField name="double(monthly_os_changes)"/>
						<MiningField name="double(OPPO)"/>
						<MiningField name="double(Samsung)"/>
						<MiningField name="double(iPhone)"/>
						<MiningField name="double(year)"/>
					</MiningSchema>
					<Node>
						<True/>
						<Node>
							<SimplePredicate field="double(amount)" operator="lessOrEqual" value="50349.5"/>
							<Node>
								<SimplePredicate field="double(burstiness_login_interval)" operator="lessOrEqual" value="-0.25894246995449066"/>
								<Node>
									<SimplePredicate field="double(std_login_interval_30d)" operator="lessOrEqual" value="33.90842056274414"/>
									<Node score="0" recordCount="1">
										<SimplePredicate field="double(day)" operator="lessOrEqual" value="11.0"/>
										<ScoreDistribution value="0" recordCount="1"/>
										<ScoreDistribution value="1" recordCount="0"/>
									</Node>
									<Node score="0" recordCount="1">
										<SimplePredicate field="double(avg_login_interval_30d)" operator="lessOrEqual" value="52890.453125"/>
										<ScoreDistribution value="0" recordCount="1"/>
										<ScoreDistribution value="1" recordCount="0"/>
									</Node>
									<Node>
										<SimplePredicate field="double(day)" operator="lessOrEqual" value="28.0"/>
										<Node>
											<SimplePredicate field="double(Vivo)" operator="lessOrEqual" value="0.5"/>
											<Node score="1" recordCount="1">
												<SimplePredicate field="double(logins_last_30_days)" operator="lessOrEqual" value="1.9845890402793884"/>
												<ScoreDistribution value="0" recordCount="0"/>
												<ScoreDistribution value="1" recordCount="1"/>
											</Node>
											<Node score="1" recordCount="1">
												<SimplePredicate field="double(hour)" operator="lessOrEqual" value="13.0"/>
												<ScoreDistribution value="0" recordCount="0"/>
												<ScoreDistribution value="1" recordCount="1"/>
											</Node>
											<Node score="0" recordCount="1">
												<True/>
												<ScoreDistribution value="0" recordCount="1"/>
												<ScoreDistribution value="1" recordCount="0"/>
											</Node>
										</Node>
										<Node score="0" recordCount="1">
											<True/>
											<ScoreDistribution value="0" recordCount="1"/>
											<ScoreDistribution value="1" recordCount="0"/>
										</Node>
									</Node>
									<Node score="0" recordCount="1">
										<True/>
										<ScoreDistribution value="0" recordCount="1"/>
										<ScoreDistribution value="1" recordCount="0"/>
									</Node>
								</Node>
								<Node score="0" recordCount="1">
									<SimplePredicate field="double(iOS)" operator="lessOrEqual" value="0.5"/>
									<ScoreDistribution value="0" recordCount="1"/>
									<ScoreDistribution value="1" recordCount="0"/>
								</Node>
								<Node score="1" recordCount="1">
									<True/>
									<ScoreDistribution value="0" recordCount="0"/>
									<ScoreDistribution value="1" recordCount="1"/>
								</Node>
							</Node>
							<Node>
								<SimplePredicate field="double(ewm_login_interval_7d)" operator="lessOrEqual" value="8658.95556640625"/>
								<Node>
									<SimplePredicate field="double(logins_7d_over_30d_ratio)" operator="lessOrEqual" value="0.5296438336372375"/>
									<Node score="0" recordCount="1">
										<SimplePredicate field="double(var_login_interval_30d)" operator="lessOrEqual" value="3.9934160896E10"/>
										<ScoreDistribution value="0" recordCount="1"/>
										<ScoreDistribution value="1" recordCount="0"/>
									</Node>
									<Node score="0" recordCount="1">
										<SimplePredicate field="double(month)" operator="lessOrEqual" value="5.5"/>
										<ScoreDistribution value="0" recordCount="1"/>
										<ScoreDistribution value="1" recordCount="0"/>
									</Node>
									<Node>
										<SimplePredicate field="double(zscore_avg_login_interval_7d)" operator="lessOrEqual" value="-0.6175086796283722"/>
										<Node score="1" recordCount="1">
											<SimplePredicate field="double(avg_login_interval_30d)" operator="lessOrEqual" value="97963.328125"/>
											<ScoreDistribution value="0" recordCount="0"/>
											<ScoreDistribution value="1" recordCount="1"/>
										</Node>
										<Node score="0" recordCount="1">
											<True/>
											<ScoreDistribution value="0" recordCount="1"/>
											<ScoreDistribution value="1" recordCount="0"/>
										</Node>
									</Node>
									<Node score="0" recordCount="1">
										<SimplePredicate field="double(timestamp_unix)" operator="lessOrEqual" value="1.7429514673476076E18"/>
										<ScoreDistribution value="0" recordCount="1"/>
										<ScoreDistribution value="1" recordCount="0"/>
									</Node>
									<Node>
										<SimplePredicate field="double(day)" operator="lessOrEqual" value="27.0"/>
										<Node score="0" recordCount="1">
											<SimplePredicate field="double(login_frequency_7d)" operator="lessOrEqual" value="0.3114248514175415"/>
											<ScoreDistribution value="0" recordCount="1"/>
											<ScoreDistribution value="1" recordCount="0"/>
										</Node>
										<Node>
											<SimplePredicate field="double(logins_last_7_days)" operator="lessOrEqual" value="3.0369162559509277"/>
											<Node score="0" recordCount="1">
												<SimplePredicate field="double(var_login_interval_30d)" operator="lessOrEqual" value="7.0974486528E10"/>
												<ScoreDistribution value="0" recordCount="1"/>
												<ScoreDistribution value="1" recordCount="0"/>
											</Node>
											<Node score="1" recordCount="1">
												<True/>
												<ScoreDistribution value="0" recordCount="0"/>
												<ScoreDistribution value="1" recordCount="1"/>
											</Node>
										</Node>
										<Node score="1" recordCount="1">
											<True/>
											<ScoreDistribution value="0" recordCount="0"/>
											<ScoreDistribution value="1" recordCount="1"/>
										</Node>
									</Node>
									<Node score="0" recordCount="1">
										<True/>
										<ScoreDistribution value="0" recordCount="1"/>
										<ScoreDistribution value="1" recordCount="0"/>
									</Node>
								</Node>
								<Node>
									<SimplePredicate field="double(freq_change_7d_vs_mean)" operator="lessOrEqual" value="3.2830305099487305"/>
									<Node score="0" recordCount="1">
										<SimplePredicate field="double(timestamp_unix)" operator="lessOrEqual" value="1.7525245027737928E18"/>
										<ScoreDistribution value="0" recordCount="1"/>
										<ScoreDistribution value="1" recordCount="0"/>
									</Node>
									<Node score="0" recordCount="1">
										<SimplePredicate field="double(amount)" operator="lessOrEqual" value="1575.0"/>
										<ScoreDistribution value="0" recordCount="1"/>
										<ScoreDistribution value="1" recordCount="0"/>
									</Node>
									<Node>
										<SimplePredicate field="double(day)" operator="lessOrEqual" value="14.5"/>
										<Node>
											<SimplePredicate field="double(day)" operator="lessOrEqual" value="5.5"/>
											<Node>
												<SimplePredicate field="double(monthly_phone_model_changes)" operator="lessOrEqual" value="1.5"/>
												<Node score="0" recordCount="1">
													<SimplePredicate field="double(timestamp_unix)" operator="lessOrEqual" value="1.7543355358636933E18"/>
													<ScoreDistribution value="0" recordCount="1"/>
													<ScoreDistribution value="1" recordCount="0"/>
												</Node>
												<Node score="1" recordCount="1">
													<True/>
													<ScoreDistribution value="0" recordCount="0"/>
													<ScoreDistribution value="1" recordCount="1"/>
												</Node>
											</Node>
											<Node score="0" recordCount="1">
												<True/>
												<ScoreDistribution value="0" recordCount="1"/>
												<ScoreDistribution value="1" recordCount="0"/>
											</Node>
										</Node>
										<Node score="0" recordCount="1">
											<True/>
											<ScoreDistribution value="0" recordCount="1"/>
											<ScoreDistribution value="1" recordCount="0"/>
										</Node>
									</Node>
									<Node>
										<SimplePredicate field="double(amount)" operator="lessOrEqual" value="21308.0"/>
										<Node>
											<SimplePredicate field="double(avg_login_interval_30d)" operator="lessOrEqual" value="49612.587890625"/>
											<Node>
												<SimplePredicate field="double(logins_last_30_days)" operator="lessOrEqual" value="43.9535026550293"/>
												<Node score="1" recordCount="1">
													<SimplePredicate field="double(dayofweek)" operator="lessOrEqual" value="2.5"/>
													<ScoreDistribution value="0" recordCount="0"/>
													<ScoreDistribution value="1" recordCount="1"/>
												</Node>
												<Node score="0" recordCount="1">
													<True/>
													<ScoreDistribution value="0" recordCount="1"/>
													<ScoreDistribution value="1" recordCount="0"/>
												</Node>
											</Node>
											<Node score="0" recordCount="1">
												<True/>
												<ScoreDistribution value="0" recordCount="1"/>
												<ScoreDistribution value="1" recordCount="0"/>
											</Node>
										</Node>
										<Node score="1" recordCount="1">
											<True/>
											<ScoreDistribution value="0" recordCount="0"/>
											<ScoreDistribution value="1" recordCount="1"/>
										</Node>
									</Node>
									<Node score="1" recordCount="1">
										<True/>
										<ScoreDistribution value="0" recordCount="0"/>
										<ScoreDistribution value="1" recordCount="1"/>
									</Node>
								</Node>
								<Node score="0" recordCount="1">
									<True/>
									<ScoreDistribution value="0" recordCount="1"/>
									<ScoreDistribution value="1" recordCount="0"/>
								</Node>
							</Node>
							<Node>
								<SimplePredicate field="double(TECNO)" operator="lessOrEqual" value="0.5"/>
								<Node>
									<SimplePredicate field="double(logins_7d_over_30d_ratio)" operator="lessOrEqual" value="0.4093850404024124"/>
									<Node>
										<SimplePredicate field="double(amount)" operator="lessOrEqual" value="44074.5"/>
										<Node>
											<SimplePredicate field="double(month)" operator="lessOrEqual" value="2.5"/>
											<Node score="0" recordCount="1">
												<SimplePredicate field="double(std_login_interval_30d)" operator="lessOrEqual" value="153861.5078125"/>
												<ScoreDistribution value="0" recordCount="1"/>
												<ScoreDistribution value="1" recordCount="0"/>
											</Node>
											<Node>
												<SimplePredicate field="double(fano_factor_login_interval)" operator="lessOrEqual" value="283068.171875"/>
												<Node score="0" recordCount="1">
													<SimplePredicate field="double(monthly_os_changes)" operator="lessOrEqual" value="3.0"/>
													<ScoreDistribution value="0" recordCount="1"/>
													<ScoreDistribution value="1" recordCount="0"/>
												</Node>
												<Node score="1" recordCount="1">
													<True/>
													<ScoreDistribution value="0" recordCount="0"/>
													<ScoreDistribution value="1" recordCount="1"/>
												</Node>
											</Node>
											<Node score="0" recordCount="1">
												<True/>
												<ScoreDistribution value="0" recordCount="1"/>
												<ScoreDistribution value="1" recordCount="0"/>
											</Node>
										</Node>
										<Node score="0" recordCount="1">
											<True/>
											<ScoreDistribution value="0" recordCount="1"/>
											<ScoreDistribution value="1" recordCount="0"/>
										</Node>
									</Node>
									<Node>
										<SimplePredicate field="double(logins_last_30_days)" operator="lessOrEqual" value="24.5"/>
										<Node>
											<SimplePredicate field="double(fano_factor_login_interval)" operator="lessOrEqual" value="1048915.1875"/>
											<Node>
												<SimplePredicate field="double(logins_last_30_days)" operator="lessOrEqual" value="22.27321434020996"/>
												<Node score="0" recordCount="1">
													<SimplePredicate field="double(OPPO)" operator="lessOrEqual" value="0.5"/>
													<ScoreDistribution value="0" recordCount="1"/>
													<ScoreDistribution value="1" recordCount="0"/>
												</Node>
												<Node score="1" recordCount="1">
													<SimplePredicate field="double(amount)" operator="lessOrEqual" value="49904.0"/>
													<ScoreDistribution value="0" recordCount="0"/>
													<ScoreDistribution value="1" recordCount="1"/>
												</Node>
												<Node score="0" recordCount="1">
													<True/>
													<ScoreDistribution value="0" recordCount="1"/>
													<ScoreDistribution value="1" recordCount="0"/>
												</Node>
											</Node>
											<Node score="0" recordCount="1">
												<SimplePredicate field="double(logins_7d_over_30d_ratio)" operator="lessOrEqual" value="0.23108473420143127"/>
												<ScoreDistribution value="0" recordCount="1"/>
												<ScoreDistribution value="1" recordCount="0"/>
											</Node>
											<Node score="1" recordCount="1">
												<True/>
												<ScoreDistribution value="0" recordCount="0"/>
												<ScoreDistribution value="1" recordCount="1"/>
											</Node>
										</Node>
										<Node score="1" recordCount="1">
											<True/>
											<ScoreDistribution value="0" recordCount="0"/>
											<ScoreDistribution value="1" recordCount="1"/>
										</Node>
									</Node>
									<Node score="0" recordCount="1">
										<True/>
										<ScoreDistribution value="0" recordCount="1"/>
										<ScoreDistribution value="1" recordCount="0"/>
									</Node>
								</Node>
								<Node>
									<SimplePredicate field="double(var_login_interval_30d)" operator="lessOrEqual" value="7.25423652864E11"/>
									<Node>
										<SimplePredicate field="double(logins_last_30_days)" operator="lessOrEqual" value="39.18408966064453"/>
										<Node score="0" recordCount="1">
											<SimplePredicate field="double(std_login_interval_30d)" operator="lessOrEqual" value="345493.484375"/>
											<ScoreDistribution value="0" recordCount="1"/>
											<ScoreDistribution value="1" recordCount="0"/>
										</Node>
										<Node>
											<SimplePredicate field="double(timestamp_unix)" operator="lessOrEqual" value="1.7551185255816233E18"/>
											<Node score="0" recordCount="1">
												<SimplePredicate field="double(Samsung)" operator="lessOrEqual" value="0.5"/>
												<ScoreDistribution value="0" recordCount="1"/>
												<ScoreDistribution value="1" recordCount="0"/>
											</Node>
											<Node score="0" recordCount="1">
												<SimplePredicate field="double(day)" operator="lessOrEqual" value="22.0"/>
												<ScoreDistribution value="0" recordCount="1"/>
												<ScoreDistribution value="1" recordCount="0"/>
											</Node>
											<Node score="1" recordCount="1">
												<True/>
												<ScoreDistribution value="0" recordCount="0"/>
												<ScoreDistribution value="1" recordCount="1"/>
											</Node>
										</Node>
										<Node score="1" recordCount="1">
											<SimplePredicate field="double(login_frequency_7d)" operator="lessOrEqual" value="1.3499498963356018"/>
											<ScoreDistribution value="0" recordCount="0"/>
											<ScoreDistribution value="1" recordCount="1"/>
										</Node>
										<Node score="0" recordCount="1">
											<True/>
											<ScoreDistribution value="0" recordCount="1"/>
											<ScoreDistribution value="1" recordCount="0"/>
										</Node>
									</Node>
									<Node score="0" recordCount="1">
										<SimplePredicate field="double(amount)" operator="lessOrEqual" value="37500.0"/>
										<ScoreDistribution value="0" recordCount="1"/>
										<ScoreDistribution value="1" recordCount="0"/>
									</Node>
									<Node score="0" recordCount="1">
										<SimplePredicate field="double(std_login_interval_30d)" operator="lessOrEqual" value="44867.564453125"/>
										<ScoreDistribution value="0" recordCount="1"/>
										<ScoreDistribution value="1" recordCount="0"/>
									</Node>
									<Node score="1" recordCount="1">
										<True/>
										<ScoreDistribution value="0" recordCount="0"/>
										<ScoreDistribution value="1" recordCount="1"/>
									</Node>
								</Node>
								<Node score="0" recordCount="1">
									<SimplePredicate field="double(Samsung)" operator="lessOrEqual" value="0.5"/>
									<ScoreDistribution value="0" recordCount="1"/>
									<ScoreDistribution value="1" recordCount="0"/>
								</Node>
								<Node score="1" recordCount="1">
									<True/>
									<ScoreDistribution value="0" recordCount="0"/>
									<ScoreDistribution value="1" recordCount="1"/>
								</Node>
							</Node>
							<Node>
								<SimplePredicate field="double(login_frequency_7d)" operator="lessOrEqual" value="1.6382423639297485"/>
								<Node score="0" recordCount="1">
									<SimplePredicate field="double(zscore_avg_login_interval_7d)" operator="lessOrEqual" value="-0.035092540085315704"/>
									<ScoreDistribution value="0" recordCount="1"/>
									<ScoreDistribution value="1" recordCount="0"/>
								</Node>
								<Node score="1" recordCount="1">
									<True/>
									<ScoreDistribution value="0" recordCount="0"/>
									<ScoreDistribution value="1" recordCount="1"/>
								</Node>
							</Node>
							<Node score="0" recordCount="1">
								<SimplePredicate field="double(amount)" operator="lessOrEqual" value="10054.5"/>
								<ScoreDistribution value="0" recordCount="1"/>
								<ScoreDistribution value="1" recordCount="0"/>
							</Node>
							<Node score="1" recordCount="1">
								<True/>
								<ScoreDistribution value="0" recordCount="0"/>
								<ScoreDistribution value="1" recordCount="1"/>
							</Node>
						</Node>
						<Node>
							<SimplePredicate field="double(monthly_os_changes)" operator="lessOrEqual" value="1.5"/>
							<Node>
								<SimplePredicate field="double(zscore_avg_login_interval_7d)" operator="lessOrEqual" value="-0.9991872608661652"/>
								<Node>
									<SimplePredicate field="double(var_login_interval_30d)" operator="lessOrEqual" value="1.65545856E9"/>
									<Node>
										<SimplePredicate field="double(logins_last_30_days)" operator="lessOrEqual" value="1.267347812652588"/>
										<Node>
											<SimplePredicate field="double(iOS)" operator="lessOrEqual" value="0.5"/>
											<Node>
												<SimplePredicate field="double(login_frequency_7d)" operator="lessOrEqual" value="0.0714285746216774"/>
												<Node score="0" recordCount="1">
													<SimplePredicate field="double(hour)" operator="lessOrEqual" value="12.0"/>
													<ScoreDistribution value="0" recordCount="1"/>
													<ScoreDistribution value="1" recordCount="0"/>
												</Node>
												<Node score="1" recordCount="1">
													<True/>
													<ScoreDistribution value="0" recordCount="0"/>
													<ScoreDistribution value="1" recordCount="1"/>
												</Node>
											</Node>
											<Node score="0" recordCount="1">
												<True/>
												<ScoreDistribution value="0" recordCount="1"/>
												<ScoreDistribution value="1" recordCount="0"/>
											</Node>
										</Node>
										<Node score="1" recordCount="1">
											<True/>
											<ScoreDistribution value="0" recordCount="0"/>
											<ScoreDistribution value="1" recordCount="1"/>
										</Node>
									</Node>
									<Node score="1" recordCount="1">
										<SimplePredicate field="double(dayofweek)" operator="lessOrEqual" value="4.0"/>
										<ScoreDistribution value="0" recordCount="0"/>
										<ScoreDistribution value="1" recordCount="1"/>
									</Node>
									<Node score="0" recordCount="1">
										<True/>
										<ScoreDistribution value="0" recordCount="1"/>
										<ScoreDistribution value="1" recordCount="0"/>
									</Node>
								</Node>
								<Node score="0" recordCount="1">
									<True/>
									<ScoreDistribution value="0" recordCount="1"/>
									<ScoreDistribution value="1" recordCount="0"/>
								</Node>
							</Node>
							<Node>
								<SimplePredicate field="double(logins_last_30_days)" operator="lessOrEqual" value="28.9749813079834"/>
								<Node>
									<SimplePredicate field="double(iPhone)" operator="lessOrEqual" value="0.5"/>
									<Node>
										<SimplePredicate field="double(timestamp_unix)" operator="lessOrEqual" value="1.7501482519877386E18"/>
										<Node>
											<SimplePredicate field="double(logins_last_30_days)" operator="lessOrEqual" value="23.075634956359863"/>
											<Node score="0" recordCount="1">
												<SimplePredicate field="double(amount)" operator="lessOrEqual" value="210691.5"/>
												<ScoreDistribution value="0" recordCount="1"/>
												<ScoreDistribution value="1" recordCount="0"/>
											</Node>
											<Node>
												<SimplePredicate field="double(fano_factor_login_interval)" operator="lessOrEqual" value="535131.65625"/>
												<Node>
													<SimplePredicate field="double(freq_change_7d_vs_mean)" operator="lessOrEqual" value="0.24389620125293732"/>
													<Node>
														<SimplePredicate field="double(amount)" operator="lessOrEqual" value="302500.0"/>
														<Node score="0" recordCount="1">
															<SimplePredicate field="double(std_login_interval_30d)" operator="lessOrEqual" value="230681.6796875"/>
															<ScoreDistribution value="0" recordCount="1"/>
															<ScoreDistribution value="1" recordCount="0"/>
														</Node>
														<Node score="1" recordCount="1">
															<True/>
															<ScoreDistribution value="0" recordCount="0"/>
															<ScoreDistribution value="1" recordCount="1"/>
														</Node>
													</Node>
													<Node score="1" recordCount="1">
														<True/>
														<ScoreDistribution value="0" recordCount="0"/>
														<ScoreDistribution value="1" recordCount="1"/>
													</Node>
												</Node>
												<Node score="0" recordCount="1">
													<True/>
													<ScoreDistribution value="0" recordCount="1"/>
													<ScoreDistribution value="1" recordCount="0"/>
												</Node>
											</Node>
											<Node score="0" recordCount="1">
												<True/>
												<ScoreDistribution value="0" recordCount="1"/>
												<ScoreDistribution value="1" recordCount="0"/>
											</Node>
										</Node>
										<Node score="1" recordCount="1">
											<SimplePredicate field="double(fano_factor_login_interval)" operator="lessOrEqual" value="269588.421875"/>
											<ScoreDistribution value="0" recordCount="0"/>
											<ScoreDistribution value="1" recordCount="1"/>
										</Node>
										<Node score="0" recordCount="1">
											<True/>
											<ScoreDistribution value="0" recordCount="1"/>
											<ScoreDistribution value="1" recordCount="0"/>
										</Node>
									</Node>
									<Node>
										<SimplePredicate field="double(dayofweek)" operator="lessOrEqual" value="4.5"/>
										<Node score="0" recordCount="1">
											<SimplePredicate field="double(hour)" operator="lessOrEqual" value="11.5"/>
											<ScoreDistribution value="0" recordCount="1"/>
											<ScoreDistribution value="1" recordCount="0"/>
										</Node>
										<Node>
											<SimplePredicate field="double(freq_change_7d_vs_mean)" operator="lessOrEqual" value="-0.3279678374528885"/>
											<Node score="0" recordCount="1">
												<SimplePredicate field="double(day)" operator="lessOrEqual" value="13.0"/>
												<ScoreDistribution value="0" recordCount="1"/>
												<ScoreDistribution value="1" recordCount="0"/>
											</Node>
											<Node score="0" recordCount="1">
												<SimplePredicate field="double(dayofweek)" operator="lessOrEqual" value="1.5"/>
												<ScoreDistribution value="0" recordCount="1"/>
												<ScoreDistribution value="1" recordCount="0"/>
											</Node>
											<Node score="1" recordCount="1">
												<True/>
												<ScoreDistribution value="0" recordCount="0"/>
												<ScoreDistribution value="1" recordCount="1"/>
											</Node>
										</Node>
										<Node>
											<SimplePredicate field="double(logins_last_30_days)" operator="lessOrEqual" value="11.003066539764404"/>
											<Node>
												<SimplePredicate field="double(std_login_interval_30d)" operator="lessOrEqual" value="438951.546875"/>
												<Node>
													<SimplePredicate field="double(login_frequency_7d)" operator="lessOrEqual" value="0.4417428970336914"/>
													<Node>
														<SimplePredicate field="double(logins_last_30_days)" operator="lessOrEqual" value="9.393643379211426"/>
														<Node score="1" recordCount="1">
															<SimplePredicate field="double(day)" operator="lessOrEqual" value="15.5"/>
															<ScoreDistribution value="0" recordCount="0"/>
															<ScoreDistribution value="1" recordCount="1"/>
														</Node>
														<Node score="0" recordCount="1">
															<True/>
															<ScoreDistribution value="0" recordCount="1"/>
															<ScoreDistribution value="1" recordCount="0"/>
														</Node>
													</Node>
													<Node score="1" recordCount="1">
														<True/>
														<ScoreDistribution value="0" recordCount="0"/>
														<ScoreDistribution value="1" recordCount="1"/>
													</Node>
												</Node>
												<Node score="1" recordCount="1">
													<True/>
													<ScoreDistribution value="0" recordCount="0"/>
													<ScoreDistribution value="1" recordCount="1"/>
												</Node>
											</Node>
											<Node score="0" recordCount="1">
												<True/>
												<ScoreDistribution value="0" recordCount="1"/>
												<ScoreDistribution value="1" recordCount="0"/>
											</Node>
										</Node>
										<Node score="0" recordCount="1">
											<SimplePredicate field="double(freq_change_7d_vs_mean)" operator="lessOrEqual" value="-0.15934066474437714"/>
											<ScoreDistribution value="0" recordCount="1"/>
											<ScoreDistribution value="1" recordCount="0"/>
										</Node>
										<Node>
											<SimplePredicate field="double(fano_factor_login_interval)" operator="lessOrEqual" value="261938.234375"/>
											<Node>
												<SimplePredicate field="double(ewm_login_interval_7d)" operator="lessOrEqual" value="13514.89794921875"/>
												<Node>
													<SimplePredicate field="double(Vivo)" operator="lessOrEqual" value="0.5"/>
													<Node score="1" recordCount="1">
														<SimplePredicate field="double(amount)" operator="lessOrEqual" value="197396.5"/>
														<ScoreDistribution value="0" recordCount="0"/>
														<ScoreDistribution value="1" recordCount="1"/>
													</Node>
													<Node score="0" recordCount="1">
														<True/>
														<ScoreDistribution value="0" recordCount="1"/>
														<ScoreDistribution value="1" recordCount="0"/>
													</Node>
												</Node>
												<Node score="1" recordCount="1">
													<True/>
													<ScoreDistribution value="0" recordCount="0"/>
													<ScoreDistribution value="1" recordCount="1"/>
												</Node>
											</Node>
											<Node score="1" recordCount="1">
												<True/>
												<ScoreDistribution value="0" recordCount="0"/>
												<ScoreDistribution value="1" recordCount="1"/>
											</Node>
										</Node>
										<Node score="1" recordCount="1">
											<True/>
											<ScoreDistribution value="0" recordCount="0"/>
											<ScoreDistribution value="1" recordCount="1"/>
										</Node>
									</Node>
									<Node score="0" recordCount="1">
										<SimplePredicate field="double(amount)" operator="lessOrEqual" value="98352.5"/>
										<ScoreDistribution value="0" recordCount="1"/>
										<ScoreDistribution value="1" recordCount="0"/>
									</Node>
									<Node score="1" recordCount="1">
										<True/>
										<ScoreDistribution value="0" recordCount="0"/>
										<ScoreDistribution value="1" recordCount="1"/>
									</Node>
								</Node>
								<Node>
									<SimplePredicate field="double(dayofweek)" operator="lessOrEqual" value="3.5"/>
									<Node>
										<SimplePredicate field="double(dayofweek)" operator="lessOrEqual" value="0.5"/>
										<Node score="0" recordCount="1">
											<SimplePredicate field="double(hour)" operator="lessOrEqual" value="12.0"/>
											<ScoreDistribution value="0" recordCount="1"/>
											<ScoreDistribution value="1" recordCount="0"/>
										</Node>
										<Node score="0" recordCount="1">
											<SimplePredicate field="double(month)" operator="lessOrEqual" value="2.0"/>
											<ScoreDistribution value="0" recordCount="1"/>
											<ScoreDistribution value="1" recordCount="0"/>
										</Node>
										<Node score="1" recordCount="1">
											<SimplePredicate field="double(var_login_interval_30d)" operator="lessOrEqual" value="1.95828604928E11"/>
											<ScoreDistribution value="0" recordCount="0"/>
											<ScoreDistribution value="1" recordCount="1"/>
										</Node>
										<Node score="0" recordCount="1">
											<True/>
											<ScoreDistribution value="0" recordCount="1"/>
											<ScoreDistribution value="1" recordCount="0"/>
										</Node>
									</Node>
									<Node>
										<SimplePredicate field="double(month)" operator="lessOrEqual" value="4.5"/>
										<Node score="0" recordCount="1">
											<SimplePredicate field="double(timestamp_unix)" operator="lessOrEqual" value="1.7435129054725407E18"/>
											<ScoreDistribution value="0" recordCount="1"/>
											<ScoreDistribution value="1" recordCount="0"/>
										</Node>
										<Node score="1" recordCount="1">
											<SimplePredicate field="double(month)" operator="lessOrEqual" value="3.5"/>
											<ScoreDistribution value="0" recordCount="0"/>
											<ScoreDistribution value="1" recordCount="1"/>
										</Node>
										<Node score="1" recordCount="1">
											<SimplePredicate field="double(burstiness_login_interval)" operator="lessOrEqual" value="0.13115118071436882"/>
											<ScoreDistribution value="0" recordCount="0"/>
											<ScoreDistribution value="1" recordCount="1"/>
										</Node>
										<Node score="0" recordCount="1">
											<True/>
											<ScoreDistribution value="0" recordCount="1"/>
											<ScoreDistribution value="1" recordCount="0"/>
										</Node>
									</Node>
									<Node score="0" recordCount="1">
										<SimplePredicate field="double(year)" operator="lessOrEqual" value="2024.5"/>
										<ScoreDistribution value="0" recordCount="1"/>
										<ScoreDistribution value="1" recordCount="0"/>
									</Node>
									<Node>
										<SimplePredicate field="double(hour)" operator="lessOrEqual" value="22.0"/>
										<Node score="1" recordCount="1">
											<SimplePredicate field="double(login_frequency_7d)" operator="lessOrEqual" value="1.1369454860687256"/>
											<ScoreDistribution value="0" recordCount="0"/>
											<ScoreDistribution value="1" recordCount="1"/>
										</Node>
										<Node>
											<SimplePredicate field="double(logins_7d_over_30d_ratio)" operator="lessOrEqual" value="0.4736601859331131"/>
											<Node score="0" recordCount="1">
												<SimplePredicate field="double(logins_last_7_days)" operator="lessOrEqual" value="8.012580394744873"/>
												<ScoreDistribution value="0" recordCount="1"/>
												<ScoreDistribution value="1" recordCount="0"/>
											</Node>
											<Node>
												<SimplePredicate field="double(var_login_interval_30d)" operator="lessOrEqual" value="2.0514724864E10"/>
												<Node>
													<SimplePredicate field="double(day)" operator="lessOrEqual" value="9.0"/>
													<Node score="1" recordCount="1">
														<SimplePredicate field="double(burstiness_login_interval)" operator="lessOrEqual" value="-0.0841825008392334"/>
														<ScoreDistribution value="0" recordCount="0"/>
														<ScoreDistribution value="1" recordCount="1"/>
													</Node>
													<Node score="0" recordCount="1">
														<True/>
														<ScoreDistribution value="0" recordCount="1"/>
														<ScoreDistribution value="1" recordCount="0"/>
													</Node>
												</Node>
												<Node score="1" recordCount="1">
													<True/>
													<ScoreDistribution value="0" recordCount="0"/>
													<ScoreDistribution value="1" recordCount="1"/>
												</Node>
											</Node>
											<Node score="1" recordCount="1">
												<True/>
												<ScoreDistribution value="0" recordCount="0"/>
												<ScoreDistribution value="1" recordCount="1"/>
											</Node>
										</Node>
										<Node score="1" recordCount="1">
											<True/>
											<ScoreDistribution value="0" recordCount="0"/>
											<ScoreDistribution value="1" recordCount="1"/>
										</Node>
									</Node>
									<Node score="0" recordCount="1">
										<True/>
										<ScoreDistribution value="0" recordCount="1"/>
										<ScoreDistribution value="1" recordCount="0"/>
									</Node>
								</Node>
								<Node>
									<SimplePredicate field="double(amount)" operator="lessOrEqual" value="99899.5"/>
									<Node score="0" recordCount="1">
										<SimplePredicate field="double(timestamp_unix)" operator="lessOrEqual" value="1.7442206473634447E18"/>
										<ScoreDistribution value="0" recordCount="1"/>
										<ScoreDistribution value="1" recordCount="0"/>
									</Node>
									<Node score="1" recordCount="1">
										<True/>
										<ScoreDistribution value="0" recordCount="0"/>
										<ScoreDistribution value="1" recordCount="1"/>
									</Node>
								</Node>
								<Node score="0" recordCount="1">
									<SimplePredicate field="double(timestamp_unix)" operator="lessOrEqual" value="1.7550447208636088E18"/>
									<ScoreDistribution value="0" recordCount="1"/>
									<ScoreDistribution value="1" recordCount="0"/>
								</Node>
								<Node score="1" recordCount="1">
									<SimplePredicate field="double(logins_last_30_days)" operator="lessOrEqual" value="11.938181400299072"/>
									<ScoreDistribution value="0" recordCount="0"/>
									<ScoreDistribution value="1" recordCount="1"/>
								</Node>
								<Node score="0" recordCount="1">
									<SimplePredicate field="double(avg_login_interval_30d)" operator="lessOrEqual" value="128202.7421875"/>
									<ScoreDistribution value="0" recordCount="1"/>
									<ScoreDistribution value="1" recordCount="0"/>
								</Node>
								<Node score="1" recordCount="1">
									<True/>
									<ScoreDistribution value="0" recordCount="0"/>
									<ScoreDistribution value="1" recordCount="1"/>
								</Node>
							</Node>
							<Node>
								<SimplePredicate field="double(amount)" operator="lessOrEqual" value="140032.5"/>
								<Node score="0" recordCount="1">
									<SimplePredicate field="double(freq_change_7d_vs_mean)" operator="lessOrEqual" value="-0.081902414560318"/>
									<ScoreDistribution value="0" recordCount="1"/>
									<ScoreDistribution value="1" recordCount="0"/>
								</Node>
								<Node>
									<SimplePredicate field="double(timestamp_unix)" operator="lessOrEqual" value="1.7514757748393247E18"/>
									<Node score="0" recordCount="1">
										<SimplePredicate field="double(fano_factor_login_interval)" operator="lessOrEqual" value="373830.59375"/>
										<ScoreDistribution value="0" recordCount="1"/>
										<ScoreDistribution value="1" recordCount="0"/>
									</Node>
									<Node score="1" recordCount="1">
										<True/>
										<ScoreDistribution value="0" recordCount="0"/>
										<ScoreDistribution value="1" recordCount="1"/>
									</Node>
								</Node>
								<Node>
									<SimplePredicate field="double(logins_last_30_days)" operator="lessOrEqual" value="80.75109100341797"/>
									<Node>
										<SimplePredicate field="double(ewm_login_interval_7d)" operator="lessOrEqual" value="14505.70849609375"/>
										<Node score="0" recordCount="1">
											<SimplePredicate field="double(zscore_avg_login_interval_7d)" operator="lessOrEqual" value="-0.1644948422908783"/>
											<ScoreDistribution value="0" recordCount="1"/>
											<ScoreDistribution value="1" recordCount="0"/>
										</Node>
										<Node score="1" recordCount="1">
											<True/>
											<ScoreDistribution value="0" recordCount="0"/>
											<ScoreDistribution value="1" recordCount="1"/>
										</Node>
									</Node>
									<Node score="0" recordCount="1">
										<SimplePredicate field="double(hour)" operator="lessOrEqual" value="12.5"/>
										<ScoreDistribution value="0" recordCount="1"/>
										<ScoreDistribution value="1" recordCount="0"/>
									</Node>
									<Node score="1" recordCount="1">
										<True/>
										<ScoreDistribution value="0" recordCount="0"/>
										<ScoreDistribution value="1" recordCount="1"/>
									</Node>
								</Node>
								<Node score="0" recordCount="1">
									<True/>
									<ScoreDistribution value="0" recordCount="1"/>
									<ScoreDistribution value="1" recordCount="0"/>
								</Node>
							</Node>
							<Node>
								<SimplePredicate field="double(Samsung)" operator="lessOrEqual" value="0.5"/>
								<Node>
									<SimplePredicate field="double(timestamp_unix)" operator="lessOrEqual" value="1.7457181822004756E18"/>
									<Node score="1" recordCount="1">
										<SimplePredicate field="double(logins_last_30_days)" operator="lessOrEqual" value="30.80418300628662"/>
										<ScoreDistribution value="0" recordCount="0"/>
										<ScoreDistribution value="1" recordCount="1"/>
									</Node>
									<Node score="0" recordCount="1">
										<True/>
										<ScoreDistribution value="0" recordCount="1"/>
										<ScoreDistribution value="1" recordCount="0"/>
									</Node>
								</Node>
								<Node>
									<SimplePredicate field="double(login_frequency_7d)" operator="lessOrEqual" value="4.9388110637664795"/>
									<Node>
										<SimplePredicate field="double(timestamp_unix)" operator="lessOrEqual" value="1.7520310969308283E18"/>
										<Node>
											<SimplePredicate field="double(ewm_login_interval_7d)" operator="lessOrEqual" value="22399.857421875"/>
											<Node score="0" recordCount="1">
												<SimplePredicate field="double(burstiness_login_interval)" operator="lessOrEqual" value="0.16903573274612427"/>
												<ScoreDistribution value="0" recordCount="1"/>
												<ScoreDistribution value="1" recordCount="0"/>
											</Node>
											<Node score="0" recordCount="1">
												<SimplePredicate field="double(logins_last_7_days)" operator="lessOrEqual" value="10.0261869430542"/>
												<ScoreDistribution value="0" recordCount="1"/>
												<ScoreDistribution value="1" recordCount="0"/>
											</Node>
											<Node score="1" recordCount="1">
												<SimplePredicate field="double(timestamp_unix)" operator="lessOrEqual" value="1.7497196486113362E18"/>
												<ScoreDistribution value="0" recordCount="0"/>
												<ScoreDistribution value="1" recordCount="1"/>
											</Node>
											<Node score="0" recordCount="1">
												<True/>
												<ScoreDistribution value="0" recordCount="1"/>
												<ScoreDistribution value="1" recordCount="0"/>
											</Node>
										</Node>
										<Node>
											<SimplePredicate field="double(amount)" operator="lessOrEqual" value="152156.5"/>
											<Node score="1" recordCount="1">
												<SimplePredicate field="double(fano_factor_login_interval)" operator="lessOrEqual" value="85154.7421875"/>
												<ScoreDistribution value="0" recordCount="0"/>
												<ScoreDistribution value="1" recordCount="1"/>
											</Node>
											<Node score="0" recordCount="1">
												<True/>
												<ScoreDistribution value="0" recordCount="1"/>
												<ScoreDistribution value="1" recordCount="0"/>
											</Node>
										</Node>
										<Node>
											<SimplePredicate field="double(iOS)" operator="lessOrEqual" value="0.5"/>
											<Node>
												<SimplePredicate field="double(amount)" operator="lessOrEqual" value="302093.0"/>
												<Node>
													<SimplePredicate field="double(iPhone)" operator="lessOrEqual" value="0.5"/>
													<Node>
														<SimplePredicate field="double(hour)" operator="lessOrEqual" value="17.5"/>
														<Node score="1" recordCount="1">
															<SimplePredicate field="double(TECNO)" operator="lessOrEqual" value="0.5"/>
															<ScoreDistribution value="0" recordCount="0.04"/>
															<ScoreDistribution value="1" recordCount="0.96"/>
														</Node>
														<Node score="1" recordCount="1">
															<True/>
															<ScoreDistribution value="0" recordCount="0"/>
															<ScoreDistribution value="1" recordCount="1"/>
														</Node>
													</Node>
													<Node score="0" recordCount="1">
														<True/>
														<ScoreDistribution value="0" recordCount="1"/>
														<ScoreDistribution value="1" recordCount="0"/>
													</Node>
												</Node>
												<Node score="0" recordCount="1">
													<True/>
													<ScoreDistribution value="0" recordCount="1"/>
													<ScoreDistribution value="1" recordCount="0"/>
												</Node>
											</Node>
											<Node score="0" recordCount="1">
												<True/>
												<ScoreDistribution value="0" recordCount="1"/>
												<ScoreDistribution value="1" recordCount="0"/>
											</Node>
										</Node>
										<Node>
											<SimplePredicate field="double(month)" operator="lessOrEqual" value="6.5"/>
											<Node>
												<SimplePredicate field="double(logins_7d_over_30d_ratio)" operator="lessOrEqual" value="0.18615023791790009"/>
												<Node>
													<SimplePredicate field="double(amount)" operator="lessOrEqual" value="331211.5"/>
													<Node score="1" recordCount="1">
														<SimplePredicate field="double(monthly_phone_model_changes)" operator="lessOrEqual" value="1.5"/>
														<ScoreDistribution value="0" recordCount="0.07142857142857142"/>
														<ScoreDistribution value="1" recordCount="0.9285714285714286"/>
													</Node>
													<Node score="1" recordCount="1">
														<True/>
														<ScoreDistribution value="0" recordCount="0"/>
														<ScoreDistribution value="1" recordCount="1"/>
													</Node>
												</Node>
												<Node score="0" recordCount="1">
													<True/>
													<ScoreDistribution value="0" recordCount="1"/>
													<ScoreDistribution value="1" recordCount="0"/>
												</Node>
											</Node>
											<Node score="1" recordCount="1">
												<True/>
												<ScoreDistribution value="0" recordCount="0"/>
												<ScoreDistribution value="1" recordCount="1"/>
											</Node>
										</Node>
										<Node score="1" recordCount="1">
											<True/>
											<ScoreDistribution value="0" recordCount="0"/>
											<ScoreDistribution value="1" recordCount="1"/>
										</Node>
									</Node>
									<Node score="0" recordCount="1">
										<True/>
										<ScoreDistribution value="0" recordCount="1"/>
										<ScoreDistribution value="1" recordCount="0"/>
									</Node>
								</Node>
								<Node score="0" recordCount="1">
									<True/>
									<ScoreDistribution value="0" recordCount="1"/>
									<ScoreDistribution value="1" recordCount="0"/>
								</Node>
							</Node>
							<Node>
								<SimplePredicate field="double(day)" operator="lessOrEqual" value="26.5"/>
								<Node>
									<SimplePredicate field="double(timestamp_unix)" operator="lessOrEqual" value="1.7525601681822188E18"/>
									<Node>
										<SimplePredicate field="double(login_frequency_7d)" operator="lessOrEqual" value="0.5809576511383057"/>
										<Node score="1" recordCount="1">
											<SimplePredicate field="double(std_login_interval_30d)" operator="lessOrEqual" value="121786.8671875"/>
											<ScoreDistribution value="0" recordCount="0"/>
											<ScoreDistribution value="1" recordCount="1"/>
										</Node>
										<Node score="0" recordCount="1">
											<True/>
											<ScoreDistribution value="0" recordCount="1"/>
											<ScoreDistribution value="1" recordCount="0"/>
										</Node>
									</Node>
									<Node>
										<SimplePredicate field="double(amount)" operator="lessOrEqual" value="160457.5"/>
										<Node score="1" recordCount="1">
											<SimplePredicate field="double(logins_7d_over_30d_ratio)" operator="lessOrEqual" value="0.2189345508813858"/>
											<ScoreDistribution value="0" recordCount="0"/>
											<ScoreDistribution value="1" recordCount="1"/>
										</Node>
										<Node score="0" recordCount="1">
											<SimplePredicate field="double(freq_change_7d_vs_mean)" operator="lessOrEqual" value="0.11209870781749487"/>
											<ScoreDistribution value="0" recordCount="1"/>
											<ScoreDistribution value="1" recordCount="0"/>
										</Node>
										<Node score="1" recordCount="1">
											<True/>
											<ScoreDistribution value="0" recordCount="0"/>
											<ScoreDistribution value="1" recordCount="1"/>
										</Node>
									</Node>
									<Node score="1" recordCount="1">
										<True/>
										<ScoreDistribution value="0" recordCount="0"/>
										<ScoreDistribution value="1" recordCount="1"/>
									</Node>
								</Node>
								<Node score="0" recordCount="1">
									<True/>
									<ScoreDistribution value="0" recordCount="1"/>
									<ScoreDistribution value="1" recordCount="0"/>
								</Node>
							</Node>
							<Node score="0" recordCount="1">
								<True/>
								<ScoreDistribution value="0" recordCount="1"/>
								<ScoreDistribution value="1" recordCount="0"/>
							</Node>
						</Node>
						<Node>
							<SimplePredicate field="double(dayofweek)" operator="lessOrEqual" value="3.5"/>
							<Node>
								<SimplePredicate field="double(std_login_interval_30d)" operator="lessOrEqual" value="91252.07421875"/>
								<Node>
									<SimplePredicate field="double(logins_last_30_days)" operator="lessOrEqual" value="34.985687255859375"/>
									<Node score="0" recordCount="1">
										<SimplePredicate field="double(amount)" operator="lessOrEqual" value="387797.5"/>
										<ScoreDistribution value="0" recordCount="1"/>
										<ScoreDistribution value="1" recordCount="0"/>
									</Node>
									<Node score="1" recordCount="1">
										<True/>
										<ScoreDistribution value="0" recordCount="0"/>
										<ScoreDistribution value="1" recordCount="1"/>
									</Node>
								</Node>
								<Node score="0" recordCount="1">
									<True/>
									<ScoreDistribution value="0" recordCount="1"/>
									<ScoreDistribution value="1" recordCount="0"/>
								</Node>
							</Node>
							<Node>
								<SimplePredicate field="double(freq_change_7d_vs_mean)" operator="lessOrEqual" value="0.20184582471847534"/>
								<Node>
									<SimplePredicate field="double(day)" operator="lessOrEqual" value="23.5"/>
									<Node score="0" recordCount="1">
										<SimplePredicate field="double(day)" operator="lessOrEqual" value="2.5"/>
										<ScoreDistribution value="0" recordCount="1"/>
										<ScoreDistribution value="1" recordCount="0"/>
									</Node>
									<Node score="0" recordCount="1">
										<SimplePredicate field="double(hour)" operator="lessOrEqual" value="11.5"/>
										<ScoreDistribution value="0" recordCount="1"/>
										<ScoreDistribution value="1" recordCount="0"/>
									</Node>
									<Node>
										<SimplePredicate field="double(var_login_interval_30d)" operator="lessOrEqual" value="1.34191194112E11"/>
										<Node>
											<SimplePredicate field="double(fano_factor_login_interval)" operator="lessOrEqual" value="848816.1875"/>
											<Node score="0" recordCount="1">
												<SimplePredicate field="double(year)" operator="lessOrEqual" value="2024.5"/>
												<ScoreDistribution value="0" recordCount="1"/>
												<ScoreDistribution value="1" recordCount="0"/>
											</Node>
											<Node>
												<SimplePredicate field="double(freq_change_7d_vs_mean)" operator="lessOrEqual" value="-0.19666722416877747"/>
												<Node score="1" recordCount="1">
													<SimplePredicate field="double(ewm_login_interval_7d)" operator="lessOrEqual" value="368503.125"/>
													<ScoreDistribution value="0" recordCount="0"/>
													<ScoreDistribution value="1" recordCount="1"/>
												</Node>
												<Node score="0" recordCount="1">
													<True/>
													<ScoreDistribution value="0" recordCount="1"/>
													<ScoreDistribution value="1" recordCount="0"/>
												</Node>
											</Node>
											<Node>
												<SimplePredicate field="double(amount)" operator="lessOrEqual" value="81324.0"/>
												<Node score="1" recordCount="1">
													<SimplePredicate field="double(std_login_interval_30d)" operator="lessOrEqual" value="175473.671875"/>
													<ScoreDistribution value="0" recordCount="0"/>
													<ScoreDistribution value="1" recordCount="1"/>
												</Node>
												<Node score="0" recordCount="1">
													<True/>
													<ScoreDistribution value="0" recordCount="1"/>
													<ScoreDistribution value="1" recordCount="0"/>
												</Node>
											</Node>
											<Node score="1" recordCount="1">
												<SimplePredicate field="double(hour)" operator="lessOrEqual" value="18.0"/>
												<ScoreDistribution value="0" recordCount="0"/>
												<ScoreDistribution value="1" recordCount="1"/>
											</Node>
											<Node score="0" recordCount="1">
												<True/>
												<ScoreDistribution value="0" recordCount="1"/>
												<ScoreDistribution value="1" recordCount="0"/>
											</Node>
										</Node>
										<Node score="0" recordCount="1">
											<True/>
											<ScoreDistribution value="0" recordCount="1"/>
											<ScoreDistribution value="1" recordCount="0"/>
										</Node>
									</Node>
									<Node score="0" recordCount="1">
										<True/>
										<ScoreDistribution value="0" recordCount="1"/>
										<ScoreDistribution value="1" recordCount="0"/>
									</Node>
								</Node>
								<Node score="0" recordCount="1">
									<True/>
									<ScoreDistribution value="0" recordCount="1"/>
									<ScoreDistribution value="1" recordCount="0"/>
								</Node>
							</Node>
							<Node>
								<SimplePredicate field="double(logins_last_7_days)" operator="lessOrEqual" value="23.0"/>
								<Node score="0" recordCount="1">
									<SimplePredicate field="double(Vivo)" operator="lessOrEqual" value="0.5"/>
									<ScoreDistribution value="0" recordCount="1"/>
									<ScoreDistribution value="1" recordCount="0"/>
								</Node>
								<Node score="1" recordCount="1">
									<True/>
									<ScoreDistribution value="0" recordCount="0"/>
									<ScoreDistribution value="1" recordCount="1"/>
								</Node>
							</Node>
							<Node score="1" recordCount="1">
								<True/>
								<ScoreDistribution value="0" recordCount="0"/>
								<ScoreDistribution value="1" recordCount="1"/>
							</Node>
						</Node>
						<Node score="0" recordCount="1">
							<SimplePredicate field="double(logins_7d_over_30d_ratio)" operator="lessOrEqual" value="0.4072921872138977"/>
							<ScoreDistribution value="0" recordCount="1"/>
							<ScoreDistribution value="1" recordCount="0"/>
						</Node>
						<Node score="1" recordCount="1">
							<SimplePredicate field="double(freq_change_7d_vs_mean)" operator="lessOrEqual" value="0.8670150935649872"/>
							<ScoreDistribution value="0" recordCount="0"/>
							<ScoreDistribution value="1" recordCount="1"/>
						</Node>
						<Node score="0" recordCount="1">
							<True/>
							<ScoreDistribution value="0" recordCount="1"/>
							<ScoreDistribution value="1" recordCount="0"/>
						</Node>
					</Node>
				</TreeModel>
			</Segment>
			<Segment id="2">
				<True/>
				<TreeModel functionName="classification" missingValueStrategy="nullPrediction">
					<MiningSchema>
						<MiningField name="double(amount)"/>
						<MiningField name="double(burstiness_login_interval)"/>
						<MiningField name="double(std_login_interval_30d)"/>
						<MiningField name="double(day)"/>
						<MiningField name="double(avg_login_interval_30d)"/>
						<MiningField name="double(logins_last_30_days)"/>
						<MiningField name="double(hour)"/>
						<MiningField name="double(iOS)"/>
						<MiningField name="double(ewm_login_interval_7d)"/>
						<MiningField name="double(logins_7d_over_30d_ratio)"/>
						<MiningField name="double(var_login_interval_30d)"/>
						<MiningField name="double(month)"/>
						<MiningField name="double(zscore_avg_login_interval_7d)"/>
						<MiningField name="double(timestamp_unix)"/>
						<MiningField name="double(login_frequency_7d)"/>
						<MiningField name="double(logins_last_7_days)"/>
						<MiningField name="double(freq_change_7d_vs_mean)"/>
						<MiningField name="double(monthly_phone_model_changes)"/>
						<MiningField name="double(dayofweek)"/>
						<MiningField name="double(fano_factor_login_interval)"/>
						<MiningField name="double(monthly_os_changes)"/>
						<MiningField name="double(OPPO)"/>
						<MiningField name="double(Samsung)"/>
						<MiningField name="double(iPhone)"/>
						<MiningField name="double(year)"/>
						<MiningField name="double(Honor)"/>
						<MiningField name="double(Xiaomi)"/>
					</MiningSchema>
					<Node>
						<True/>
						<Node>
							<SimplePredicate field="double(avg_login_interval_30d)" operator="lessOrEqual" value="93450.01953125"/>
							<Node>
								<SimplePredicate field="double(monthly_os_changes)" operator="lessOrEqual" value="1.5"/>
								<Node>
									<SimplePredicate field="double(logins_last_30_days)" operator="lessOrEqual" value="24.963865280151367"/>
									<Node score="0" recordCount="1">
										<SimplePredicate field="double(timestamp_unix)" operator="lessOrEqual" value="1.7508528327827128E18"/>
										<ScoreDistribution value="0" recordCount="1"/>
										<ScoreDistribution value="1" recordCount="0"/>
									</Node>
									<Node score="0" recordCount="1">
										<SimplePredicate field="double(logins_last_30_days)" operator="lessOrEqual" value="1.0009426474571228"/>
										<ScoreDistribution value="0" recordCount="1"/>
										<ScoreDistribution value="1" recordCount="0"/>
									</Node>
									<Node>
										<SimplePredicate field="double(amount)" operator="lessOrEqual" value="20400.0"/>
										<Node>
											<SimplePredicate field="double(hour)" operator="lessOrEqual" value="16.5"/>
											<Node>
												<SimplePredicate field="double(ewm_login_interval_7d)" operator="lessOrEqual" value="11016.907348632812"/>
												<Node score="0" recordCount="1">
													<SimplePredicate field="double(timestamp_unix)" operator="lessOrEqual" value="1.7540169523695452E18"/>
													<ScoreDistribution value="0" recordCount="1"/>
													<ScoreDistribution value="1" recordCount="0"/>
												</Node>
												<Node score="1" recordCount="1">
													<True/>
													<ScoreDistribution value="0" recordCount="0"/>
													<ScoreDistribution value="1" recordCount="1"/>
												</Node>
											</Node>
											<Node score="0" recordCount="1">
												<True/>
												<ScoreDistribution value="0" recordCount="1"/>
												<ScoreDistribution value="1" recordCount="0"/>
											</Node>
										</Node>
										<Node score="0" recordCount="1">
											<True/>
											<ScoreDistribution value="0" recordCount="1"/>
											<ScoreDistribution value="1" recordCount="0"/>
										</Node>
									</Node>
									<Node>
										<SimplePredicate field="double(day)" operator="lessOrEqual" value="12.5"/>
										<Node>
											<SimplePredicate field="double(logins_7d_over_30d_ratio)" operator="lessOrEqual" value="0.999892920255661"/>
											<Node>
												<SimplePredicate field="double(iPhone)" operator="lessOrEqual" value="0.5"/>
												<Node score="1" recordCount="1">
													<SimplePredicate field="double(amount)" operator="lessOrEqual" value="134986.5"/>
													<ScoreDistribution value="0" recordCount="0"/>
													<ScoreDistribution value="1" recordCount="1"/>
												</Node>
												<Node score="0" recordCount="1">
													<True/>
													<ScoreDistribution value="0" recordCount="1"/>
													<ScoreDistribution value="1" recordCount="0"/>
												</Node>
											</Node>
											<Node score="1" recordCount="1">
												<SimplePredicate field="double(day)" operator="lessOrEqual" value="11.5"/>
												<ScoreDistribution value="0" recordCount="0"/>
												<ScoreDistribution value="1" recordCount="1"/>
											</Node>
											<Node score="1" recordCount="1">
												<SimplePredicate field="double(logins_last_7_days)" operator="lessOrEqual" value="16.41501522064209"/>
												<ScoreDistribution value="0" recordCount="0"/>
												<ScoreDistribution value="1" recordCount="1"/>
											</Node>
											<Node score="1" recordCount="1">
												<SimplePredicate field="double(timestamp_unix)" operator="lessOrEqual" value="1.753198091084759E18"/>
												<ScoreDistribution value="0" recordCount="0"/>
												<ScoreDistribution value="1" recordCount="1"/>
											</Node>
											<Node score="0" recordCount="1">
												<True/>
												<ScoreDistribution value="0" recordCount="1"/>
												<ScoreDistribution value="1" recordCount="0"/>
											</Node>
										</Node>
										<Node score="0" recordCount="1">
											<SimplePredicate field="double(dayofweek)" operator="lessOrEqual" value="1.5"/>
											<ScoreDistribution value="0" recordCount="1"/>
											<ScoreDistribution value="1" recordCount="0"/>
										</Node>
										<Node score="0" recordCount="1">
											<SimplePredicate field="double(timestamp_unix)" operator="lessOrEqual" value="1.7542767119916073E18"/>
											<ScoreDistribution value="0" recordCount="1"/>
											<ScoreDistribution value="1" recordCount="0"/>
										</Node>
										<Node score="1" recordCount="1">
											<True/>
											<ScoreDistribution value="0" recordCount="0"/>
											<ScoreDistribution value="1" recordCount="1"/>
										</Node>
									</Node>
									<Node score="1" recordCount="1">
										<SimplePredicate field="double(month)" operator="lessOrEqual" value="7.5"/>
										<ScoreDistribution value="0" recordCount="0"/>
										<ScoreDistribution value="1" recordCount="1"/>
									</Node>
									<Node>
										<SimplePredicate field="double(var_login_interval_30d)" operator="lessOrEqual" value="7.515788032E9"/>
										<Node score="1" recordCount="1">
											<SimplePredicate field="double(var_login_interval_30d)" operator="lessOrEqual" value="3.744318416E9"/>
											<ScoreDistribution value="0" recordCount="0"/>
											<ScoreDistribution value="1" recordCount="1"/>
										</Node>
										<Node score="0" recordCount="1">
											<True/>
											<ScoreDistribution value="0" recordCount="1"/>
											<ScoreDistribution value="1" recordCount="0"/>
										</Node>
									</Node>
									<Node score="1" recordCount="1">
										<True/>
										<ScoreDistribution value="0" recordCount="0"/>
										<ScoreDistribution value="1" recordCount="1"/>
									</Node>
								</Node>
								<Node>
									<SimplePredicate field="double(timestamp_unix)" operator="lessOrEqual" value="1.747000075319509E18"/>
									<Node>
										<SimplePredicate field="double(burstiness_login_interval)" operator="lessOrEqual" value="-0.04031864181160927"/>
										<Node>
											<SimplePredicate field="double(logins_last_30_days)" operator="lessOrEqual" value="40.5390567779541"/>
											<Node score="0" recordCount="1">
												<SimplePredicate field="double(Samsung)" operator="lessOrEqual" value="0.5"/>
												<ScoreDistribution value="0" recordCount="1"/>
												<ScoreDistribution value="1" recordCount="0"/>
											</Node>
											<Node score="0" recordCount="1">
												<SimplePredicate field="double(iOS)" operator="lessOrEqual" value="0.5"/>
												<ScoreDistribution value="0" recordCount="1"/>
												<ScoreDistribution value="1" recordCount="0"/>
											</Node>
											<Node score="1" recordCount="1">
												<True/>
												<ScoreDistribution value="0" recordCount="0"/>
												<ScoreDistribution value="1" recordCount="1"/>
											</Node>
										</Node>
										<Node score="0" recordCount="1">
											<True/>
											<ScoreDistribution value="0" recordCount="1"/>
											<ScoreDistribution value="1" recordCount="0"/>
										</Node>
									</Node>
									<Node score="0" recordCount="1">
										<SimplePredicate field="double(year)" operator="lessOrEqual" value="2024.5"/>
										<ScoreDistribution value="0" recordCount="1"/>
										<ScoreDistribution value="1" recordCount="0"/>
									</Node>
									<Node score="0" recordCount="1">
										<SimplePredicate field="double(ewm_login_interval_7d)" operator="lessOrEqual" value="45368.056640625"/>
										<ScoreDistribution value="0" recordCount="1"/>
										<ScoreDistribution value="1" recordCount="0"/>
									</Node>
									<Node>
										<SimplePredicate field="double(std_login_interval_30d)" operator="lessOrEqual" value="81388.4765625"/>
										<Node>
											<SimplePredicate field="double(zscore_avg_login_interval_7d)" operator="lessOrEqual" value="-0.03382760379463434"/>
											<Node>
												<SimplePredicate field="double(burstiness_login_interval)" operator="lessOrEqual" value="0.07701388746500015"/>
												<Node score="0" recordCount="1">
													<SimplePredicate field="double(var_login_interval_30d)" operator="lessOrEqual" value="3.8675104E9"/>
													<ScoreDistribution value="0" recordCount="1"/>
													<ScoreDistribution value="1" recordCount="0"/>
												</Node>
												<Node score="1" recordCount="1">
													<SimplePredicate field="double(logins_7d_over_30d_ratio)" operator="lessOrEqual" value="0.3065040111541748"/>
													<ScoreDistribution value="0" recordCount="0"/>
													<ScoreDistribution value="1" recordCount="1"/>
												</Node>
												<Node score="0" recordCount="1">
													<True/>
													<ScoreDistribution value="0" recordCount="1"/>
													<ScoreDistribution value="1" recordCount="0"/>
												</Node>
											</Node>
											<Node score="0" recordCount="1">
												<True/>
												<ScoreDistribution value="0" recordCount="1"/>
												<ScoreDistribution value="1" recordCount="0"/>
											</Node>
										</Node>
										<Node score="0" recordCount="1">
											<True/>
											<ScoreDistribution value="0" recordCount="1"/>
											<ScoreDistribution value="1" recordCount="0"/>
										</Node>
									</Node>
									<Node score="0" recordCount="1">
										<True/>
										<ScoreDistribution value="0" recordCount="1"/>
										<ScoreDistribution value="1" recordCount="0"/>
									</Node>
								</Node>
								<Node>
									<SimplePredicate field="double(fano_factor_login_interval)" operator="lessOrEqual" value="193650.0703125"/>
									<Node>
										<SimplePredicate field="double(Samsung)" operator="lessOrEqual" value="0.5"/>
										<Node>
											<SimplePredicate field="double(freq_change_7d_vs_mean)" operator="lessOrEqual" value="0.3208017945289612"/>
											<Node>
												<SimplePredicate field="double(avg_login_interval_30d)" operator="lessOrEqual" value="91114.234375"/>
												<Node>
													<SimplePredicate field="double(freq_change_7d_vs_mean)" operator="lessOrEqual" value="0.18119511753320694"/>
													<Node>
														<SimplePredicate field="double(amount)" operator="lessOrEqual" value="202313.0"/>
														<Node>
															<SimplePredicate field="double(avg_login_interval_30d)" operator="lessOrEqual" value="15501.30322265625"/>
															<Node score="0" recordCount="1">
																<SimplePredicate field="double(fano_factor_login_interval)" operator="lessOrEqual" value="113888.34375"/>
																<ScoreDistribution value="0" recordCount="1"/>
																<ScoreDistribution value="1" recordCount="0"/>
															</Node>
															<Node score="1" recordCount="1">
																<True/>
																<ScoreDistribution value="0" recordCount="0"/>
																<ScoreDistribution value="1" recordCount="1"/>
															</Node>
														</Node>
														<Node score="0" recordCount="1">
															<True/>
															<ScoreDistribution value="0" recordCount="1"/>
															<ScoreDistribution value="1" recordCount="0"/>
														</Node>
													</Node>
													<Node>
														<SimplePredicate field="double(freq_change_7d_vs_mean)" operator="lessOrEqual" value="-0.6763693988323212"/>
														<Node score="0" recordCount="1">
															<SimplePredicate field="double(logins_last_7_days)" operator="lessOrEqual" value="6.361217021942139"/>
															<ScoreDistribution value="0" recordCount="1"/>
															<ScoreDistribution value="1" recordCount="0"/>
														</Node>
														<Node score="1" recordCount="1">
															<True/>
															<ScoreDistribution value="0" recordCount="0"/>
															<ScoreDistribution value="1" recordCount="1"/>
														</Node>
													</Node>
													<Node score="1" recordCount="1">
														<True/>
														<ScoreDistribution value="0" recordCount="0"/>
														<ScoreDistribution value="1" recordCount="1"/>
													</Node>
												</Node>
												<Node>
													<SimplePredicate field="double(ewm_login_interval_7d)" operator="lessOrEqual" value="27416.1279296875"/>
													<Node>
														<SimplePredicate field="double(hour)" operator="lessOrEqual" value="15.5"/>
														<Node>
															<SimplePredicate field="double(dayofweek)" operator="lessOrEqual" value="4.5"/>
															<Node score="1" recordCount="1">
																<SimplePredicate field="double(day)" operator="lessOrEqual" value="19.0"/>
																<ScoreDistribution value="0" recordCount="0"/>
																<ScoreDistribution value="1" recordCount="1"/>
															</Node>
															<Node score="0" recordCount="1">
																<True/>
																<ScoreDistribution value="0" recordCount="1"/>
																<ScoreDistribution value="1" recordCount="0"/>
															</Node>
														</Node>
														<Node score="0" recordCount="1">
															<True/>
															<ScoreDistribution value="0" recordCount="1"/>
															<ScoreDistribution value="1" recordCount="0"/>
														</Node>
													</Node>
													<Node score="0" recordCount="1">
														<True/>
														<ScoreDistribution value="0" recordCount="1"/>
														<ScoreDistribution value="1" recordCount="0"/>
													</Node>
												</Node>
												<Node>
													<SimplePredicate field="double(timestamp_unix)" operator="lessOrEqual" value="1.748512453563515E18"/>
													<Node score="0" recordCount="1">
														<SimplePredicate field="double(day)" operator="lessOrEqual" value="22.0"/>
														<ScoreDistribution value="0" recordCount="1"/>
														<ScoreDistribution value="1" recordCount="0"/>
													</Node>
													<Node score="1" recordCount="1">
														<True/>
														<ScoreDistribution value="0" recordCount="0"/>
														<ScoreDistribution value="1" recordCount="1"/>
													</Node>
												</Node>
												<Node score="0" recordCount="1">
													<True/>
													<ScoreDistribution value="0" recordCount="1"/>
													<ScoreDistribution value="1" recordCount="0"/>
												</Node>
											</Node>
											<Node score="1" recordCount="1">
												<SimplePredicate field="double(var_login_interval_30d)" operator="lessOrEqual" value="2.724645376E10"/>
												<ScoreDistribution value="0" recordCount="0"/>
												<ScoreDistribution value="1" recordCount="1"/>
											</Node>
											<Node score="0" recordCount="1">
												<True/>
												<ScoreDistribution value="0" recordCount="1"/>
												<ScoreDistribution value="1" recordCount="0"/>
											</Node>
										</Node>
										<Node>
											<SimplePredicate field="double(avg_login_interval_30d)" operator="lessOrEqual" value="49794.83984375"/>
											<Node>
												<SimplePredicate field="double(login_frequency_7d)" operator="lessOrEqual" value="6.214285612106323"/>
												<Node score="0" recordCount="1">
													<SimplePredicate field="double(hour)" operator="lessOrEqual" value="11.0"/>
													<ScoreDistribution value="0" recordCount="1"/>
													<ScoreDistribution value="1" recordCount="0"/>
												</Node>
												<Node>
													<SimplePredicate field="double(burstiness_login_interval)" operator="lessOrEqual" value="0.3243464380502701"/>
													<Node>
														<SimplePredicate field="double(Honor)" operator="lessOrEqual" value="0.5"/>
														<Node>
															<SimplePredicate field="double(amount)" operator="lessOrEqual" value="5062.5"/>
															<Node>
																<SimplePredicate field="double(hour)" operator="lessOrEqual" value="16.0"/>
																<Node score="0" recordCount="1">
																	<SimplePredicate field="double(std_login_interval_30d)" operator="lessOrEqual" value="70437.46875"/>
																	<ScoreDistribution value="0" recordCount="1"/>
																	<ScoreDistribution value="1" recordCount="0"/>
																</Node>
																<Node score="1" recordCount="1">
																	<True/>
																	<ScoreDistribution value="0" recordCount="0"/>
																	<ScoreDistribution value="1" recordCount="1"/>
																</Node>
															</Node>
															<Node score="0" recordCount="1">
																<True/>
																<ScoreDistribution value="0" recordCount="1"/>
																<ScoreDistribution value="1" recordCount="0"/>
															</Node>
														</Node>
														<Node>
															<SimplePredicate field="double(day)" operator="lessOrEqual" value="27.0"/>
															<Node>
																<SimplePredicate field="double(avg_login_interval_30d)" operator="lessOrEqual" value="45030.2421875"/>
																<Node score="1" recordCount="1">
																	<SimplePredicate field="double(logins_last_30_days)" operator="lessOrEqual" value="46.46530723571777"/>
																	<ScoreDistribution value="0" recordCount="0.02040816326530612"/>
																	<ScoreDistribution value="1" recordCount="0.9795918367346939"/>
																</Node>
																<Node score="1" recordCount="1">
																	<True/>
																	<ScoreDistribution value="0" recordCount="0"/>
																	<ScoreDistribution value="1" recordCount="1"/>
																</Node>
															</Node>
															<Node score="0" recordCount="1">
																<SimplePredicate field="double(burstiness_login_interval)" operator="lessOrEqual" value="0.12000743672251701"/>
																<ScoreDistribution value="0" recordCount="1"/>
																<ScoreDistribution value="1" recordCount="0"/>
															</Node>
															<Node score="1" recordCount="1">
																<True/>
																<ScoreDistribution value="0" recordCount="0.05"/>
																<ScoreDistribution value="1" recordCount="0.95"/>
															</Node>
														</Node>
														<Node score="0" recordCount="1">
															<True/>
															<ScoreDistribution value="0" recordCount="1"/>
															<ScoreDistribution value="1" recordCount="0"/>
														</Node>
													</Node>
													<Node score="0" recordCount="1">
														<True/>
														<ScoreDistribution value="0" recordCount="1"/>
														<ScoreDistribution value="1" recordCount="0"/>
													</Node>
												</Node>
												<Node score="0" recordCount="1">
													<True/>
													<ScoreDistribution value="0" recordCount="1"/>
													<ScoreDistribution value="1" recordCount="0"/>
												</Node>
											</Node>
											<Node score="0" recordCount="1">
												<True/>
												<ScoreDistribution value="0" recordCount="1"/>
												<ScoreDistribution value="1" recordCount="0"/>
											</Node>
										</Node>
										<Node>
											<SimplePredicate field="double(amount)" operator="lessOrEqual" value="129944.0"/>
											<Node>
												<SimplePredicate field="double(var_login_interval_30d)" operator="lessOrEqual" value="2.2201184256E10"/>
												<Node score="0" recordCount="1">
													<SimplePredicate field="double(login_frequency_7d)" operator="lessOrEqual" value="4.408910274505615"/>
													<ScoreDistribution value="0" recordCount="1"/>
													<ScoreDistribution value="1" recordCount="0"/>
												</Node>
												<Node score="1" recordCount="1">
													<True/>
													<ScoreDistribution value="0" recordCount="0"/>
													<ScoreDistribution value="1" recordCount="1"/>
												</Node>
											</Node>
											<Node score="1" recordCount="1">
												<True/>
												<ScoreDistribution value="0" recordCount="0"/>
												<ScoreDistribution value="1" recordCount="1"/>
											</Node>
										</Node>
										<Node>
											<SimplePredicate field="double(Xiaomi)" operator="lessOrEqual" value="0.5"/>
											<Node>
												<SimplePredicate field="double(fano_factor_login_interval)" operator="lessOrEqual" value="115145.578125"/>
												<Node score="1" recordCount="1">
													<SimplePredicate field="double(hour)" operator="lessOrEqual" value="18.0"/>
													<ScoreDistribution value="0" recordCount="0"/>
													<ScoreDistribution value="1" recordCount="1"/>
												</Node>
												<Node score="0" recordCount="1">
													<True/>
													<ScoreDistribution value="0" recordCount="1"/>
													<ScoreDistribution value="1" recordCount="0"/>
												</Node>
											</Node>
											<Node score="1" recordCount="1">
												<SimplePredicate field="double(logins_last_7_days)" operator="lessOrEqual" value="18.590188026428223"/>
												<ScoreDistribution value="0" recordCount="0"/>
												<ScoreDistribution value="1" recordCount="1"/>
											</Node>
											<Node score="0" recordCount="1">
												<SimplePredicate field="double(freq_change_7d_vs_mean)" operator="lessOrEqual" value="0.3790493905544281"/>
												<ScoreDistribution value="0" recordCount="1"/>
												<ScoreDistribution value="1" recordCount="0"/>
											</Node>
											<Node score="1" recordCount="1">
												<True/>
												<ScoreDistribution value="0" recordCount="0"/>
												<ScoreDistribution value="1" recordCount="1"/>
											</Node>
										</Node>
										<Node score="1" recordCount="1">
											<True/>
											<ScoreDistribution value="0" recordCount="0"/>
											<ScoreDistribution value="1" recordCount="1"/>
										</Node>
									</Node>
									<Node>
										<SimplePredicate field="double(logins_last_30_days)" operator="lessOrEqual" value="60.777748107910156"/>
										<Node>
											<SimplePredicate field="double(iPhone)" operator="lessOrEqual" value="0.5"/>
											<Node score="0" recordCount="1">
												<SimplePredicate field="double(logins_last_7_days)" operator="lessOrEqual" value="8.10288143157959"/>
												<ScoreDistribution value="0" recordCount="1"/>
												<ScoreDistribution value="1" recordCount="0"/>
											</Node>
											<Node score="0" recordCount="1">
												<SimplePredicate field="double(hour)" operator="lessOrEqual" value="11.5"/>
												<ScoreDistribution value="0" recordCount="1"/>
												<ScoreDistribution value="1" recordCount="0"/>
											</Node>
											<Node>
												<SimplePredicate field="double(logins_last_7_days)" operator="lessOrEqual" value="12.9511399269104"/>
												<Node score="1" recordCount="1">
													<SimplePredicate field="double(dayofweek)" operator="lessOrEqual" value="0.5"/>
													<ScoreDistribution value="0" recordCount="0"/>
													<ScoreDistribution value="1" recordCount="1"/>
												</Node>
												<Node score="1" recordCount="1">
													<SimplePredicate field="double(month)" operator="lessOrEqual" value="7.5"/>
													<ScoreDistribution value="0" recordCount="0"/>
													<ScoreDistribution value="1" recordCount="1"/>
												</Node>
												<Node score="0" recordCount="1">
													<True/>
													<ScoreDistribution value="0" recordCount="1"/>
													<ScoreDistribution value="1" recordCount="0"/>
												</Node>
											</Node>
											<Node>
												<SimplePredicate field="double(fano_factor_login_interval)" operator="lessOrEqual" value="110535.04296875"/>
												<Node score="0" recordCount="1">
													<SimplePredicate field="double(amount)" operator="lessOrEqual" value="8654.5"/>
													<ScoreDistribution value="0" recordCount="1"/>
													<ScoreDistribution value="1" recordCount="0"/>
												</Node>
												<Node score="1" recordCount="1">
													<True/>
													<ScoreDistribution value="0" recordCount="0"/>
													<ScoreDistribution value="1" recordCount="1"/>
												</Node>
											</Node>
											<Node score="0" recordCount="1">
												<True/>
												<ScoreDistribution value="0" recordCount="1"/>
												<ScoreDistribution value="1" recordCount="0"/>
											</Node>
										</Node>
										<Node score="1" recordCount="1">
											<True/>
											<ScoreDistribution value="0" recordCount="0"/>
											<ScoreDistribution value="1" recordCount="1"/>
										</Node>
									</Node>
									<Node>
										<SimplePredicate field="double(hour)" operator="lessOrEqual" value="13.5"/>
										<Node>
											<SimplePredicate field="double(freq_change_7d_vs_mean)" operator="lessOrEqual" value="-0.2073170691728592"/>
											<Node score="0" recordCount="1">
												<SimplePredicate field="double(std_login_interval_30d)" operator="lessOrEqual" value="63123.068359375"/>
												<ScoreDistribution value="0" recordCount="1"/>
												<ScoreDistribution value="1" recordCount="0"/>
											</Node>
											<Node score="1" recordCount="1">
												<True/>
												<ScoreDistribution value="0" recordCount="0"/>
												<ScoreDistribution value="1" recordCount="1"/>
											</Node>
										</Node>
										<Node score="0" recordCount="1">
											<True/>
											<ScoreDistribution value="0" recordCount="1"/>
											<ScoreDistribution value="1" recordCount="0"/>
										</Node>
									</Node>
									<Node score="0" recordCount="1">
										<SimplePredicate field="double(ewm_login_interval_7d)" operator="lessOrEqual" value="2076.0833129882812"/>
										<ScoreDistribution value="0" recordCount="1"/>
										<ScoreDistribution value="1" recordCount="0"/>
									</Node>
									<Node>
										<SimplePredicate field="double(avg_login_interval_30d)" operator="lessOrEqual" value="33767.166015625"/>
										<Node>
											<SimplePredicate field="double(zscore_avg_login_interval_7d)" operator="lessOrEqual" value="0.38198187947273254"/>
											<Node score="0" recordCount="1">
												<SimplePredicate field="double(logins_7d_over_30d_ratio)" operator="lessOrEqual" value="0.3380316495895386"/>
												<ScoreDistribution value="0" recordCount="1"/>
												<ScoreDistribution value="1" recordCount="0"/>
											</Node>
											<Node score="1" recordCount="1">
												<True/>
												<ScoreDistribution value="0" recordCount="0"/>
												<ScoreDistribution value="1" recordCount="1"/>
											</Node>
										</Node>
										<Node score="1" recordCount="1">
											<True/>
											<ScoreDistribution value="0" recordCount="0"/>
											<ScoreDistribution value="1" recordCount="1"/>
										</Node>
									</Node>
									<Node score="0" recordCount="1">
										<SimplePredicate field="double(logins_last_7_days)" operator="lessOrEqual" value="21.4017333984375"/>
										<ScoreDistribution value="0" recordCount="1"/>
										<ScoreDistribution value="1" recordCount="0"/>
									</Node>
									<Node score="1" recordCount="1">
										<True/>
										<ScoreDistribution value="0" recordCount="0"/>
										<ScoreDistribution value="1" recordCount="1"/>
									</Node>
								</Node>
								<Node>
									<SimplePredicate field="double(dayofweek)" operator="lessOrEqual" value="2.5"/>
									<Node>
										<SimplePredicate field="double(timestamp_unix)" operator="lessOrEqual" value="1.7505933480385577E18"/>
										<Node>
											<SimplePredicate field="double(fano_factor_login_interval)" operator="lessOrEqual" value="222467.15625"/>
											<Node score="1" recordCount="1">
												<SimplePredicate field="double(logins_7d_over_30d_ratio)" operator="lessOrEqual" value="0.054224295541644096"/>
												<ScoreDistribution value="0" recordCount="0"/>
												<ScoreDistribution value="1" recordCount="1"/>
											</Node>
											<Node score="0" recordCount="1">
												<True/>
												<ScoreDistribution value="0" recordCount="1"/>
												<ScoreDistribution value="1" recordCount="0"/>
											</Node>
										</Node>
										<Node>
											<SimplePredicate field="double(Samsung)" operator="lessOrEqual" value="0.5"/>
											<Node score="0" recordCount="1">
												<SimplePredicate field="double(amount)" operator="lessOrEqual" value="80032.5"/>
												<ScoreDistribution value="0" recordCount="1"/>
												<ScoreDistribution value="1" recordCount="0"/>
											</Node>
											<Node score="1" recordCount="1">
												<True/>
												<ScoreDistribution value="0" recordCount="0"/>
												<ScoreDistribution value="1" recordCount="1"/>
											</Node>
										</Node>
										<Node score="1" recordCount="1">
											<True/>
											<ScoreDistribution value="0" recordCount="0"/>
											<ScoreDistribution value="1" recordCount="1"/>
										</Node>
									</Node>
									<Node>
										<SimplePredicate field="double(iOS)" operator="lessOrEqual" value="0.5"/>
										<Node score="0" recordCount="1">
											<SimplePredicate field="double(std_login_interval_30d)" operator="lessOrEqual" value="134919.3515625"/>
											<ScoreDistribution value="0" recordCount="1"/>
											<ScoreDistribution value="1" recordCount="0"/>
										</Node>
										<Node score="0" recordCount="1">
											<SimplePredicate field="double(OPPO)" operator="lessOrEqual" value="0.5"/>
											<ScoreDistribution value="0" recordCount="1"/>
											<ScoreDistribution value="1" recordCount="0"/>
										</Node>
										<Node score="1" recordCount="1">
											<True/>
											<ScoreDistribution value="0" recordCount="0"/>
											<ScoreDistribution value="1" recordCount="1"/>
										</Node>
									</Node>
									<Node>
										<SimplePredicate field="double(ewm_login_interval_7d)" operator="lessOrEqual" value="19690.2783203125"/>
										<Node>
											<SimplePredicate field="double(dayofweek)" operator="lessOrEqual" value="0.5"/>
											<Node score="0" recordCount="1">
												<SimplePredicate field="double(freq_change_7d_vs_mean)" operator="lessOrEqual" value="1.8415291905403137"/>
												<ScoreDistribution value="0" recordCount="1"/>
												<ScoreDistribution value="1" recordCount="0"/>
											</Node>
											<Node score="1" recordCount="1">
												<True/>
												<ScoreDistribution value="0" recordCount="0"/>
												<ScoreDistribution value="1" recordCount="1"/>
											</Node>
										</Node>
										<Node score="0" recordCount="1">
											<SimplePredicate field="double(hour)" operator="lessOrEqual" value="11.5"/>
											<ScoreDistribution value="0" recordCount="1"/>
											<ScoreDistribution value="1" recordCount="0"/>
										</Node>
										<Node score="1" recordCount="1">
											<True/>
											<ScoreDistribution value="0" recordCount="0"/>
											<ScoreDistribution value="1" recordCount="1"/>
										</Node>
									</Node>
									<Node>
										<SimplePredicate field="double(logins_last_30_days)" operator="lessOrEqual" value="34.37828254699707"/>
										<Node>
											<SimplePredicate field="double(logins_7d_over_30d_ratio)" operator="lessOrEqual" value="0.4615026265382767"/>
											<Node>
												<SimplePredicate field="double(login_frequency_7d)" operator="lessOrEqual" value="1.5398367643356323"/>
												<Node score="1" recordCount="1">
													<SimplePredicate field="double(day)" operator="lessOrEqual" value="19.5"/>
													<ScoreDistribution value="0" recordCount="0"/>
													<ScoreDistribution value="1" recordCount="1"/>
												</Node>
												<Node score="0" recordCount="1">
													<True/>
													<ScoreDistribution value="0" recordCount="1"/>
													<ScoreDistribution value="1" recordCount="0"/>
												</Node>
											</Node>
											<Node score="0" recordCount="1">
												<True/>
												<ScoreDistribution value="0" recordCount="1"/>
												<ScoreDistribution value="1" recordCount="0"/>
											</Node>
										</Node>
										<Node score="0" recordCount="1">
											<SimplePredicate field="double(timestamp_unix)" operator="lessOrEqual" value="1.7515031939105423E18"/>
											<ScoreDistribution value="0" recordCount="1"/>
											<ScoreDistribution value="1" recordCount="0"/>
										</Node>
										<Node score="1" recordCount="1">
											<True/>
											<ScoreDistribution value="0" recordCount="0"/>
											<ScoreDistribution value="1" recordCount="1"/>
										</Node>
									</Node>
									<Node score="0" recordCount="1">
										<True/>
										<ScoreDistribution value="0" recordCount="1"/>
										<ScoreDistribution value="1" recordCount="0"/>
									</Node>
								</Node>
								<Node score="0" recordCount="1">
									<SimplePredicate field="double(iOS)" operator="lessOrEqual" value="0.5"/>
									<ScoreDistribution value="0" recordCount="1"/>
									<ScoreDistribution value="1" recordCount="0"/>
								</Node>
								<Node>
									<SimplePredicate field="double(zscore_avg_login_interval_7d)" operator="lessOrEqual" value="-0.26714667677879333"/>
									<Node score="0" recordCount="1">
										<SimplePredicate field="double(amount)" operator="lessOrEqual" value="186174.0"/>
										<ScoreDistribution value="0" recordCount="1"/>
										<ScoreDistribution value="1" recordCount="0"/>
									</Node>
									<Node score="1" recordCount="1">
										<True/>
										<ScoreDistribution value="0" recordCount="0"/>
										<ScoreDistribution value="1" recordCount="1"/>
									</Node>
								</Node>
								<Node score="0" recordCount="1">
									<True/>
									<ScoreDistribution value="0" recordCount="1"/>
									<ScoreDistribution value="1" recordCount="0"/>
								</Node>
							</Node>
							<Node>
								<SimplePredicate field="double(monthly_phone_model_changes)" operator="lessOrEqual" value="3.5"/>
								<Node>
